4.56157256032e+53,-7.8606434318e+64,-1.30956268081e+65,-4.56145860199e+53,-8.50875703432e+60,-1.30999552139e+65,-8.51023027517e+60,5.20188086571e+64,1.06966746016e+62,6.10403720188e+61,-1.30930001537e+65,-1.30930001537e+65,2.62133164954e+64,-1.22950562684e+65,5.19235170665e+64,3.02311216793e+64,1.31213488577e+65,1.30982611618e+65,-2.61437207743e+64,2.62133134683e+64,-1.22950556585e+65,-2.6196339931e+64,1.26639719964e+65,3.18877599444e+64,5.23846475605e+64,1.30982611618e+65,1.310521274e+65,3.42460532649e+64,1.30982531601e+65,-2.61962871685e+64,1.26622701519e+65,1.10485684643e+65,-2.6204806267e+64,-5.24015510588e+64,1.39032334187e+65,-1.30991588158e+65,-1.32545583136e+65,-1.30999555082e+65,1.26622751324e+65,4.30385222604e+64,5.23931178207e+64,6.04339809735e+64,-2.62052649743e+64,1.30999552521e+65,-1.30999552209e+65,-1.36905337367e+65,-7.62450258496e+63,8.03940885476e+64,4.01598449744e+63,-5.25025581852e+59,-2.61962760285e+64,-2.62132709472e+64,-2.61962945649e+64,-3.10230805476e+64,-5.43399149197e+64,-6.53274669884e+64,-4.52672568985e+60,5.2315839581e+64,-2.63587984401e+64,5.22391276024e+64,5.23925746005e+64,5.23925891299e+64,-5.26266176303e+64,-5.22723084837e+64